{
  "layers": [
    {
      "activation": 1,
      "biases": [
        1.4669697096076197,
        7.256685746451514,
        0.7789391282245365,
        -5.068400369282301,
        -0.20309759536025462,
        3.125458259349461,
        3.068762136758226
      ],
      "cols": 7,
      "rows": 2,
      "weights": [
        [
          -0.5479164660333307,
          1.0608482403182595,
          -12.41204587367861,
          0.950974448461378,
          7.321380372993075,
          -5.2178171156208775,
          -4.968389656277588
        ],
        [
          0.5977227077019729,
          -11.40618002502964,
          11.566162135405717,
          13.351426306432243,
          -3.124742855823676,
          -5.698166429036597,
          0.9001207393336005
        ]
      ]
    },
    {
      "activation": 1,
      "biases": [
        -0.7000409244538027,
        0.08078295060679196,
        -0.5474382321597662,
        -0.8156610677728896,
        -1.1319693900817434,
        -0.1289461782160589,
        1.208550397269367,
        3.7402280807024626,
        4.69302169154857,
        -0.3100124740732986
      ],
      "cols": 10,
      "rows": 7,
      "weights": [
        [
          -0.46701220190273307,
          -0.3382373605801117,
          0.171893245470681,
          -1.1130709495084534,
          -1.3830152495493269,
          0.5036290666386455,
          -0.04628642049667597,
          0.6228054131023096,
          2.1721614602015022,
          -0.22841466279832004
        ],
        [
          0.9289361901603495,
          7.677330143474226,
          2.6158353026250447,
          -0.5640137254077835,
          0.5261487696582591,
          0.7208573753090216,
          -3.9825424140384844,
          -6.938724392509564,
          -4.005029322782845,
          2.34410032032981
        ],
        [
          -2.0054653468223713,
          -1.3222586196867678,
          -2.9583429832640054,
          -0.6461017420980334,
          -4.076825891339438,
          -0.5771325124787366,
          3.2914466645769784,
          -2.4034554798803733,
          -7.184514113511157,
          -6.697038618216464
        ],
        [
          3.4414829312843573,
          5.248245052844265,
          3.3088360147657347,
          1.2660776118984083,
          5.372482692583911,
          -0.15750412304285302,
          -3.7783947772002873,
          -1.690275141997255,
          -0.3921443821633262,
          4.869252651340689
        ],
        [
          -0.6429501170768268,
          -5.065718739315595,
          -2.396670805765744,
          0.4775767908337484,
          -0.44850597069705395,
          0.0030537890126963617,
          4.225292939198441,
          3.509095128825453,
          -2.990418424979965,
          -1.557697180019794
        ],
        [
          2.6333441809209304,
          -2.6003374046104306,
          1.6941413823156377,
          1.411130370235731,
          4.249464593858821,
          -1.4423394695155007,
          -2.2699673334444284,
          -1.0626681138304188,
          -0.6163748608961273,
          0.03615688910991689
        ],
        [
          -0.8025827305268637,
          -1.6973323281096644,
          -0.7565984652531798,
          -0.6071149981001627,
          -1.403317895719487,
          -1.3451978833015419,
          -1.5319852255608908,
          1.690971208285421,
          4.345222585160712,
          3.2066143330910104
        ]
      ]
    }
  ]
}
